-95.84710015843339/-94.37379643357326/46.52553089444194/6.93999252829785/54.84173724582064/-38.86852924927848/-19.090094098481458/-99.91529092623705/-48.189510950035874/9.808674350895743/53.07262649626935/17.641025508540963/-17.35106414941157/-99.72912961128/-18.821605943339165/43.34856290350609/-64.5808867114466/-57.52463750734967/52.85336684896379/22.186100717364823/81.3563060230708/93.25515071308047/54.1405396878219/13.996628679644374/-26.76899166523002/-21.454226212757817/-8.598041694944598/-49.624249293007125/-59.64047055374022/84.12498688341353/-99.85643516771592/-59.589512093703576/-29.960192310735195/-30.465406368192106/34.15262026760928/-90.66776235060838/5.22809835783444/-36.044898635684916/59.00154454502652/73.87422087304935/59.561271088351276/88.15559196728142/-64.11363286754717/-40.89982473673446/-46.63144649625062/-86.75740275382128/-25.068338557772194/43.69775697815888/-91.89449612290821/-85.2165160812874/61.50831102094617/84.2066390931796/-98.31773943462166/9.981343911162213/-85.22585800981624/-86.62222487367164/-16.553092803617872/-24.07010210919887/24.561805909188266/33.83698413940934/75.12412631863984/-61.421367260943406/30.902165715740153/35.45248682102164/-57.20182283151259/94.88977349405206/-40.11435278375035/-46.717377635269244/15.068406189082935/84.77038983820509/-89.77207100919553/-47.29348389296848/-56.205477001070236/-35.28556208379004/96.82058934279465/
-20.68294194709553/56.38791654450981/-48.30885885552125/0.7111739385459401/43.3821061652456/-67.60559123186336/3.6675713556689686/-50.628558583716/22.1563605293764/52.15284958271192/82.25504816589475/-43.22359565301645/58.05294867171878/11.603032044117384/3.3203265227932377/89.73096648121825/6.660370728833229/-25.144503294683588/-76.99578581376775/-4.954970897886923/-54.18315364851591/44.924821737835146/-70.5581171386978/-78.42815113903947/95.43090903698626/73.06707674520388/-85.4194967906902/1.788728041963168/17.46346162584365/98.45118472381907/85.84164536135924/-80.4870256988911/66.46314827088705/-87.5670414527844/-56.02280784331486/-16.4897773707974/-56.726550299576985/-24.510253605219233/-98.68064777475938/51.16629507153763/68.0065101222317/79.91250258181859/-56.27338633617784/-97.94224024526608/-66.89484700319221/-52.35863019292331/49.87935043105534/-51.829509635593276/23.29126829946695/-19.830220200991903/73.18010253690531/-14.320465716736791/96.42515974539475/36.23115239218052/64.36526918272168/42.61770161583942/7.77711089491018/3.0214415759471507/-32.9635207887311/57.42430053875202/29.938949835876116/47.9996834008908/53.67137860387783/-64.72041859922635/-28.42005792975546/-9.152071069834307/-13.72467782114029/72.2944206924837/-69.52208862852105/18.96081916996721/-16.313179549435148/-87.96107490212582/29.73314429416257/-15.125647033652427/56.651264215817235/
-95.4423773966086/-19.201065367898295/-29.66779873660839/32.129035453261764/-25.06692221958842/-7.060414304131868/79.22722429771497/-70.09443413229391/76.62366589954812/5.952841560495841/-69.55523883309773/-22.57741848630772/4.215470466613652/61.47056843623548/61.67332615713511/-47.14874086198711/-29.107758995469197/47.87795135394964/26.537527485080716/31.779615212918713/-82.15859483029415/54.86802203184553/-30.05304486744049/79.48802990082399/-84.02173437511276/-44.12503274006765/-99.65610859721158/-21.361716989793635/-55.21554370780899/0.10615690520734233/-57.42819214935735/-88.69681586263955/-11.279083186536567/-59.380549114514466/-48.624373011276376/-75.38471584163861/-21.410343021583017/-49.131146215821644/-6.916266927198336/0.914856086473506/23.382573555633/89.36818385776047/-38.18904229653799/26.128808501657915/27.56978879615069/-39.400988325527344/-13.43939482417693/-95.78622788366135/-30.55605012134268/90.01558330770851/-93.10716991081549/0.8481931384439747/28.05093889085873/-18.023868481613874/-52.63439148326516/-83.84018963616191/-10.598306731001756/61.65648442536863/4.743714315662828/84.12643405931678/-62.92634062530955/-84.52163428579082/77.01010669766387/75.38956713085742/-62.02533865741333/39.31153851514529/-90.49683740483694/-59.428116668088535/70.9559333269986/79.68527931701684/-88.95757055623564/72.7912341589795/-85.87487079887308/-89.528583880117/1.6943512635225488/
90.91535287981304/-93.875790847296/25.97761120983546/93.86877048144666/-50.79699775785031/27.301195553736648/51.11615751944666/-20.27411328610738/64.32888241094577/8.618741948009585/70.29022295134791/-99.58754090546537/-82.60877175643006/-30.69334357172029/-41.13418006052174/6.435141213536994/-63.64759106577351/8.67951107035148/-35.42543319749676/83.51787474150294/93.46469273510507/33.20451769414362/30.918762285922924/-85.42070402783311/-37.415403090046894/-13.181042967559506/-19.373176614710317/76.00523015851996/-27.1189234530181/70.6604941969737/84.43377485552412/25.18040368580199/68.29410074538492/87.78776370391387/-71.0619550536139/26.282487861098474/-63.79797632080033/-70.86731986183955/67.01226817801046/-17.36924925734975/4.107439704831648/28.83999599567673/85.22251875394318/-3.5793481396424056/-80.24703792419996/-39.68632557540075/54.93685211981145/60.46464505048161/27.929844862559207/18.70375195522736/47.28059570312618/-98.40129304272112/36.34396179656417/41.231359032563546/86.82250003351601/41.703021430696765/23.25520005330017/53.663682661413105/-5.147755147729228/19.824392296663376/-18.79210999586411/-0.5853098928666753/30.336553086988175/27.67700394961126/14.02146476088349/7.161540337027276/75.11757151470266/-49.162842459905185/-91.6879009122288/-16.46940297699227/-70.35617338842064/-20.763223100978692/86.16767556779706/-20.678929185208943/86.50058496004681/
-46.90053997259089/-87.80011799026089/-29.101604678257416/-68.7669398076928/44.25190826691957/-23.951051621131242/22.803445047801034/83.4323922553161/37.78271105284048/-99.4820077096652/53.287834083216524/-64.21902219021247/-24.69055984247575/35.865552709905074/11.399532388941807/-25.26982268470502/48.6540907201053/92.3864165239307/-7.592859567001071/-26.28982259495129/-8.48398929910455/-63.73754209726812/67.76522970185366/38.24808357797909/6.770487348529613/27.766713233303307/-13.51281378622862/-47.902852530547/88.31019227120024/-83.74448058497637/16.70609091342581/-75.54361529343912/48.88583900900986/22.98511042501022/39.368167834682055/70.58658085702208/49.19135972773162/40.64056348533421/-19.582446973207638/-28.394936776161785/-61.52192197238306/57.566662242009755/-26.505065242401884/53.96834451615277/63.27130180994945/-24.95834097887824/82.08697191236243/-94.87181404911603/-21.698039494018957/-72.4633324928893/-21.772745183876935/-0.9267380730255894/-97.4451716941124/38.75476497472275/74.26369386040412/43.945170823880034/3.3740457712606116/-49.654356897136154/34.871314249000676/83.64399094541227/62.8556561606531/-54.45692665249355/-41.59651798904134/-13.6846526280016/-16.703992032946985/-43.42593160747226/9.838602062974019/34.837271559381946/-77.74622500970285/92.54022565635177/-88.0065136082993/-2.098054336631435/12.822641555597642/-46.42682872402091/57.338534721249545/
-94.9862467575112/21.00057069743555/-92.58225762581233/89.66404538708326/-25.29817489507002/-80.41930921143441/96.19800337763814/23.010981203447557/-47.52832507945828/16.7779717288916/13.97279102467472/-85.30646133817872/-96.50282821947552/-32.15517829658168/49.789037707376735/-10.094971958088166/74.7806474693902/-80.78217038348667/26.29268161660076/-72.68744000945682/-7.514573460803902/-12.72300365726764/80.55856162345376/-41.789874991249995/92.3717745064913/57.58779387109033/31.65222254864912/-93.78632378973626/94.74366208723924/-94.46454996570101/58.53811482972202/-99.85401764908377/30.040386726689462/85.54998674783698/72.30028543697708/29.67296475158571/97.18371152909882/-86.34044621886261/8.243181161159072/81.41736471805586/-5.982405747823208/-23.101376785573493/-13.708277572924189/92.68965706004454/-2.3457318992207377/-56.86319418740167/92.21144498472697/-9.35989053294361/92.26697546048476/16.182924853410086/17.520988912697774/46.550072912922644/42.84616466354973/-16.44177906534894/-37.42917754027148/68.14453981999804/95.66257844826879/38.12152518406927/55.1136614169225/-22.777879211116/-50.3428087175974/19.768315536931127/65.79353229106653/75.56264675304868/-12.295450875612431/19.714633179150013/12.332115641295971/88.98665211376704/82.67258346112996/17.415985206848347/-64.20757036938203/-2.3948808040875207/0.42857848131660603/-21.03981028557105/-94.84839638805384/
-90.28819404091197/-89.58249491419588/35.812527942628435/-39.484083066038366/17.434645593208955/-15.834518451718509/-15.919717763555468/40.66301430011953/-15.823241323537005/-86.96224449392456/-2.996969060566329/-42.802405667089396/-42.95839335947229/8.807075243176172/-72.83591930145042/-24.541465705700574/-28.149022208402855/-35.935063110778316/89.9573784107844/-58.58301729740272/24.028482408754655/-55.76528021928371/-33.86650104414292/-45.843553292248565/-84.46468135487197/58.92235150949759/38.78714461302613/-74.87248970423128/-43.79081841373329/17.566632739363698/-11.062124038325337/-11.77861526356368/97.27116592198342/-87.17210658007424/-86.10536301435499/28.808038008511318/-94.57039437822236/-5.1196223026243075/-96.11607583063353/-14.76380092501823/-52.076063795201534/0.750101351064373/14.960286519951069/42.894166304127054/52.015588442206564/85.06663207016652/10.007142624690331/-11.218228003069441/-73.15290846101092/62.07376692399572/4.674684541602318/23.64560332972809/-8.745411396654717/-86.5293952331039/-48.608978871296586/39.0809656191627/-61.966988562535796/-57.368816934315284/-77.87851760900102/-41.39422682272054/-16.682718001723785/-37.02275146839125/9.340243387096976/14.562999903806315/99.15689566431612/96.75544012499586/-45.28254234263049/-13.190001042047328/8.025370886556416/-69.80335496258229/-63.68588729195881/64.50447324950852/-70.07996520534152/-77.988111149811/97.61591129651293/
-91.10154098697049/15.871818463880018/94.40565246476154/-14.473465175729274/92.90331377480092/76.09858065681576/-50.73590124997198/79.47972461999376/-27.70983996686418/16.699784502099902/46.90221598397014/40.11868752417652/3.741866694849975/-64.29580909306273/-39.26946022220066/-16.46971332064689/-33.425783693872305/97.44649661129463/-21.571505051840603/-4.189233198068848/67.7954103646754/3.662714114909633/-41.31176609601228/42.77855099767541/-85.72532560493862/-89.64168075728394/-27.680907522248503/0.9389317608323324/21.14232278140436/1.4171808331647355/-42.520367170887205/-61.65553951571996/92.14508156948605/23.08325945465286/1.0306291594902746/7.783779865363229/-44.46782825286546/-92.13860929310562/21.478952011196554/-20.228975183148677/-31.85086883119314/-27.95284483123281/-26.291063889563745/-60.90344028722681/-89.23206292607078/58.01028808157915/21.674260472732158/-3.760733224965236/89.28356980991131/-89.48017482792451/32.45006591644341/23.72940970631008/-70.74131875411504/-74.18656744237985/33.521495466863854/17.590275616213006/5.3996534242075/-7.222604700307997/-55.08857797242426/-94.72417168920863/-17.10115139241175/57.51774055670319/-51.27324637828732/74.06067189434046/-35.8206167701332/85.76707856338973/90.92921555077922/-22.372331257005925/32.43047820146387/71.98585054328467/-76.3869798080234/93.63767859918275/-37.57724949010963/49.680625151213945/-9.201445507385046/
51.35485930720185/-70.55539281912155/94.37625965362187/-63.27238795918202/-74.05990443374083/-11.197669919730416/78.84273049401503/-27.127656900068843/-95.18582945940418/-78.82195587674205/39.591547122833674/-21.653359477569097/-28.468638395978573/-56.75866043984965/44.32064861657534/28.135288900698754/-76.10681879500454/-31.73817953747904/11.900905278105185/44.53264024819819/-54.42895251783306/-31.92847331998712/29.661196151183844/-50.59071102979611/84.29580452277133/-64.422430599456/-62.85674078414913/-41.59828986003353/-45.2890640845868/-23.872913323603456/-98.83848208902897/-97.15364257574453/-19.7244747966798/-33.621980182444844/-6.082844302185848/91.25636490741289/-83.85801450696789/10.930836408613786/4.079732345633346/29.365453581451675/53.72265650385924/-0.17205158151234912/60.16377837984126/-93.75965052428332/-2.301532691194865/-75.87102907437921/-73.80819159465088/-76.31062273348776/27.511873669175444/42.121773164841784/41.54923265540319/97.17169645689543/7.925411799273846/-94.66944389720058/-79.89914974995544/88.63800576010158/-2.983811547177197/51.334034371538195/-1.9475859857633964/-54.789767002580426/-84.98426051843495/49.50809350763038/25.70511897806969/-87.66582255205135/83.69376262543446/-53.84091490088914/35.16468813479645/-33.9841694934895/-76.47675262866385/-2.8846516330845304/-15.769060500763516/-34.021644886343026/4.653649176721004/98.69613738294242/-23.892337661780005/
-29.94638001098771/-12.242278045892618/-67.92126939907104/85.23685301871785/69.84843204254005/-37.89316621515264/-78.56398575790374/81.47522744866356/-91.2975826865887/90.76845032830681/72.81844214889827/-62.00483227289215/25.180874975635874/-93.39123788269217/8.605779341422618/-67.2937981582246/-71.17735478611363/67.82231843690846/41.455670120380375/8.657230910238894/-40.41053871700861/77.9996256992113/-57.972451944107384/45.79378503837259/-91.56004685640362/3.282852942607107/-53.6379326908593/14.60862722812044/83.67787145059631/-22.05135295260729/-78.352301995562/31.638073648930856/-3.799158850402364/79.79633158841858/63.207765331430636/-82.57943769839798/-93.49763704238173/-21.991373624549922/30.892736608650296/-30.55212168160611/-72.74354538607292/8.691299227138558/49.66415447468927/-94.19628466772099/7.5408060098286995/17.08698609777464/-2.991907082550995/-90.40185336902489/-61.769076913530995/20.497720159792806/78.91773959355851/9.9707528390189/-87.1756704423877/92.23957096732534/-43.46394003936529/72.34916058900075/-46.06964508015508/44.49199220780423/-72.848754955523/38.813794687207235/72.88776418713525/96.69345348625978/-13.910864499073725/-41.166181904184064/-31.551158439565086/-43.825909588088564/-99.85172647460698/-18.69691441114847/-9.804737066601248/9.004994973592844/8.575057482856181/40.71925497365322/-6.672328877379272/21.583103035467772/-65.82227391546742/
63.51307533279132/-6.302816214259124/87.25939255748517/-64.97029096756654/-55.05102461454583/-4.575970895562762/-82.6426005470509/56.31429561534395/-97.31777500185397/8.17462536532662/-27.78197940913863/-47.78578834231055/99.97185597002021/97.14540226299994/-44.55435359230056/39.35122173004467/49.712743900364956/-83.97219167633466/53.319726722503134/-83.86757528261617/59.864190069367/-38.29403798222171/-8.62501774479918/-63.53843580540377/61.516498527088345/-40.8354833821224/-98.55757460501329/61.62507593067048/-27.24895949988901/-63.93880444585227/-55.01742985375575/30.7643124576349/94.61338911026809/78.64492681231727/22.331150491726987/88.19686467463842/-90.06681801329637/-25.823050763419687/-87.48323920986596/-15.048526282757507/61.38840081908546/-60.260979809238435/34.598917355078214/-67.76736083711037/22.12584359381289/13.289258302151794/99.0141408865992/26.132476429595215/40.41361478930213/40.052832813084734/26.206539506475735/-14.240919850847817/-60.784478155144896/-74.18887106615865/49.85873213921411/51.05211663999302/82.24137256253644/-51.620182723217376/93.32771303766611/-28.09203904334798/79.94110913664755/19.54251108373421/-89.57046501738375/-13.161742619562105/2.0749432260943337/-28.066454014710132/-84.49437125704875/-62.76264163728686/-12.094414214557375/-91.16020943173868/92.74272514969059/-7.564394628189277/0.7228078506933429/-0.3819837275885476/71.0073042620881/
71.06704656196655/60.32454862652065/29.40097771082452/-22.00528937794695/-64.11827389901647/5.242962670771604/-81.00820536460856/46.281945477601624/-88.01578223036071/85.91776638807346/-80.67711321872866/-66.08764141988081/32.58163492196192/70.6833362332124/54.58226191605681/-56.570469073731374/-48.324022244858924/58.35008691561953/39.086484997683556/-24.18347311959937/-20.262846436399528/34.32471450859492/-74.7937839459321/-60.41404023903154/96.24464214824638/-18.37209416080674/-46.873182901347256/50.30530355363081/-27.912706302936144/63.83231538440114/67.95306295927597/2.130869105807733/95.16228329820612/33.85743384269736/-54.3564692304533/-29.536924559682575/34.115953803124484/-9.277672441864283/-73.51315234312949/13.624534356404212/98.02061462284689/-94.228963797346/-6.691524013834751/81.50174452070436/-46.116873082523654/-29.450374714754005/51.323402445916344/-89.6200193800208/-50.76741972839412/-19.572089932049195/67.52646465405027/-14.259675185550364/-46.364107916889985/61.22293376666423/-90.26117302793948/88.57659218727343/80.84183985757173/70.4953031123589/-11.094474973950724/-94.17085547031337/82.35546010361935/-39.14632399763165/52.96557844512492/-18.178483385942883/-86.40357779483674/79.51654946223226/-93.40711520210677/-84.87503468707106/-34.60350870781208/-3.455216653636157/38.33239137271315/-35.93497337538851/-73.55722785881196/3.572187625926418/-74.86708247339182/
-85.87679397341637/-3.6250456799906488/-94.47433070295499/-45.995693469336544/-18.223838253073893/4.596462785795779/-60.25960688602163/51.50330862326271/81.85353075146935/-93.53924571029695/0.039656208918586344/43.979062814147426/-30.715120052784812/-73.65416239579596/17.76295918414725/84.98569791661282/-18.85488489902663/96.23142446945317/-42.60988444559135/-19.003953246373143/-48.80306760497992/98.74479656118297/21.32311055442156/-77.47293453004052/-53.33226121446457/-34.75692445923862/-73.44849437651854/-14.985858743680083/-14.212223436879952/-97.64902575210148/-84.65862691272012/2.2480327111605902/34.655034905370286/-75.5251017143421/92.75162242410588/34.9146221637896/-46.71826963729422/55.165621180649225/-54.30421422157274/57.75446625751951/63.2161228862704/26.803447838931476/91.43132664744198/71.085433755492/42.92260056165122/55.93134524401228/27.772637820158266/5.908480499569265/-77.85815920254007/0.6629473166948259/-87.01211486304476/-63.456947116341155/42.74213570783368/16.944076631998357/-9.74595759545656/40.71521291442889/-18.88811109703994/-77.95209995839335/-10.29166573338722/54.24819687342966/-14.067601775461029/46.53536706613164/90.54860305228013/55.981541188441895/75.20908975462405/10.014228804557021/6.298969394688285/88.27164298813648/-42.271538965801916/-8.618585043740154/68.27133959114022/-30.59695391568451/-3.3529814362265142/80.83518220930588/25.417327565196544/
86.46638032098599/-83.2924334091409/-1.2050503652468905/53.17923536810099/-29.264570634395/71.61728217528395/45.96831445673212/-30.38718022245132/52.30235446246121/34.41105383986141/9.156329076993686/93.9685653685103/-33.29334057867554/51.162645246754835/88.98970261926098/-48.91765725645403/-56.479913100551585/-92.80471811780112/-61.35999936990784/-75.65969426838805/-54.6738939424082/-5.017671849788229/6.651747995262241/-9.352963116883743/-54.74063457958136/44.217827549832975/-37.60736703086731/32.73986331193663/32.24686110316716/77.07564688676979/49.22072410387136/-82.64345717034757/-84.68070208651808/85.46515437700356/-41.68081943840809/-47.82264127934128/61.83757335101856/92.13029717996372/45.25037469665796/90.12689488415054/-50.79405181661434/53.72807934763105/21.63308306098959/-63.465273171601446/-64.38002488873647/91.56152307363212/45.947800342516274/32.818378357033964/62.62384468415908/-5.568823210671695/10.326895183086222/39.76590541647346/90.72839760518298/28.108393223906376/-25.712118172094293/-75.84040198466334/39.067549501036325/7.222527750502763/-68.28044604396581/64.39630592261943/51.0475046297193/-62.106507733583086/14.032465517770191/-66.07605400666674/-59.830375328039366/-76.77011878462254/30.236571447217045/95.72788018155427/83.68449254832368/38.8522012744362/-76.18937104527681/46.76480728137301/26.461136988701767/-68.11037195716945/86.57938817038976/
-11.84400352208624/33.43203521139645/-25.56212382081364/-88.58382415409562/65.11565985856589/86.20107264055977/-88.74523723764085/88.44012312179044/20.00435685554463/57.87816374765649/81.5091622430246/-46.52128701223441/-67.43859390603812/19.93079539010745/65.68808957180295/82.91801674359687/-16.7157192406046/35.819403043051125/11.305680441044231/95.66448659039833/-30.91287324545688/-21.590108668262303/-75.1530435513894/70.79373272794143/24.784496056905553/71.63337123982018/82.41832533192039/-81.43672756286806/59.610521228979735/1.5895801160677507/7.86570964429103/52.81786711392141/4.897799768036634/-31.732908943364606/-5.339522671235983/4.417519692756628/87.20430428162288/-43.71999560147148/-93.35782517442554/-11.83015897836897/-9.409257038108905/-8.502716662578266/-17.2536832032512/89.8500621676094/-47.58521728744878/20.167590806235424/-7.865599654707339/75.24346140065967/-51.077329143375884/98.1188901396666/-61.31748542393169/39.74661324215515/-29.91712223220398/9.838786730889026/-2.4261368917410238/14.915399152771784/-42.47970506766414/50.71804859599075/81.77958619476814/27.44926438198496/85.07384200753478/-99.53364716924358/-17.49851274590138/-33.54719208854759/98.41409680121069/91.6858179940833/5.1890726113014125/-43.58269671435588/-1.6780858753633083/-65.18545315808012/31.532620988013576/-43.783623948598716/51.64280471958435/99.12883809540787/-22.12710415388692/
8.511549243469815/-55.40384404899803/-30.780622908271653/91.7572785680648/-50.6849811806178/55.0321694705155/-2.666741609315352/30.911071713611193/54.05848151671603/-86.60625356348332/-45.799778918497495/2.681895597968605/44.36850166939405/-53.44567330485766/44.43810588174247/7.054046057443969/-91.14960443195118/-45.63302763228372/97.35903074479657/22.618834598532473/-98.46580575700992/55.673956010123646/69.97438787437906/2.425936538220739/73.2378465614114/58.69012653598722/-93.77662644533211/5.4298904968425745/-36.045722629849685/-39.912474520439645/-15.073841533416783/79.2848733609056/38.4706462547816/-42.22736492121446/-41.310386957356/31.530046417373967/82.77955633793343/-25.73816375095342/-63.030174154751336/-21.25327751886161/95.44360266836293/30.72460533219271/98.72238998598746/-52.94225717481902/5.9262251540555155/86.17813951896787/-66.45209029577671/12.37846961433047/31.003335706957557/-38.01892431484723/4.966727197457232/-84.88209406501048/40.721793167150224/-91.31192208240147/5.43353632763592/-38.4325512509905/-53.02762846989282/40.491187085916096/-70.07102867176869/-66.99604775725015/50.59638615052316/61.88768023774949/33.44191492401623/63.57270093884188/87.04674305050577/41.878580042777116/57.38284544435757/-80.69491785130292/-4.024266951064746/52.91567202833011/10.945003778994248/13.164732011425542/6.723417073443883/84.979208457424/-24.34316676202218/
24.80504525580622/79.5320758272018/-30.41761982159221/-35.154326112910766/-41.240097185782254/71.41371734325915/-95.83716908037955/14.459176084272983/71.0786947830384/5.949192920735996/-45.76459691195407/7.667612903044855/-78.04435536023166/-82.10093748056278/28.84449448117587/42.896699335025744/70.69250920691636/-83.64211153423446/74.2684095001222/43.41714445288528/-80.6271100871845/-35.714777378991585/11.592147858285557/-23.65624646990298/32.91538515978067/7.598097576215295/55.67918543334403/99.87334124571686/-84.28818905636508/-96.38862131078685/96.23674825402958/89.81749734852565/-91.15405026627758/96.4639374932429/-3.9166793971308493/-90.03746002877602/-13.072795323865094/-33.729821223731165/-32.60897889814633/85.51577668810864/-20.137400639003957/39.0878831866267/23.589643337935627/14.873643874464591/-77.57021538179018/-13.604866875259702/72.78318476775632/-87.82614201238945/43.30254769257914/-34.379619157284154/-82.05623292929722/-88.42965069487967/-54.78043261888348/-42.628495607557014/59.81186656723142/-16.10377303290862/-0.7238582002534883/-59.638890889420246/-39.654063618138565/17.35661805781345/78.85765524852121/11.62698363331684/-82.27156280192891/96.11980179758476/92.52268590695837/-92.50185359322924/-71.65055521986766/74.15162567796108/-59.81735458465105/9.858440509535058/66.85305998053602/-13.63532200169908/-86.78602017313453/32.61132120556297/2.245852434345835/
65.13040771199897/-13.322090797445469/-25.14910013551375/86.2306805158822/-62.571253377994964/-89.38808587625675/0.09594550055153661/-0.6566986328042645/-33.6134780067034/97.39602404201133/55.04511508828071/21.133192059989668/70.6824237261512/23.486280002326154/76.66321283482438/2.5441220566899005/-93.72712407309471/16.346546403339985/-46.99013492655419/61.814051396914635/27.11970007008813/81.19910465591548/1.073528140815867/99.62800064218425/-44.92291992217068/37.25344570977691/3.9753556232732734/34.92158497945894/-16.178189869322196/79.36172222479615/10.258974791132331/-0.3530024614298384/17.68749043700663/-41.411581292657075/-60.41617918195461/-1.0227443487702033/3.489739807455834/83.9708747075585/-38.00880942819291/-57.1613953008844/-48.09375446460782/-12.21369848360034/22.01375139520259/85.3250716027548/-35.298168323460445/-32.069960434685086/-35.74907496549946/-29.536890021211576/85.0655010134665/-76.4511192137594/83.63384117833078/-24.041504207023152/-29.4472585629167/33.862270910827846/-28.54450221496127/70.97156163680603/-48.39683367355416/-4.8566505059893075/57.34298473371575/59.63100023579037/-16.67002092248677/27.12081211729918/57.700395892135106/-31.08948648661061/-75.74565827783152/-12.398388048946174/32.75257971199963/-42.343404929262476/82.88433161870807/92.90367882198595/-72.82867614899573/-27.030124788096145/61.514728879494754/-68.27326726818627/-76.63264470502196/
-39.19348890980352/-3.6496660938668697/81.37852827392257/71.88285934909416/-50.41995962921604/-55.96771960057894/87.81275942036177/79.92096679402783/-31.291617966542404/-3.126869498306448/54.7240095305649/36.900080422709124/-61.535404995316576/-77.41668465685471/1.9841796170065038/35.022644875429336/-26.845949814276352/-81.00208846140855/99.99387617996572/-96.80070509999152/-23.445136064134203/50.28934365754256/64.06126743203257/14.271132008492458/-23.277639036061146/88.37820449519216/1.7101112275941404/-51.675772711659086/-53.32751148319961/21.730878836352915/45.85752477472704/98.99214543791842/88.12313410247629/13.459259885480265/-21.90870930988889/94.99382529383692/-82.61365120072423/91.61445930579737/-51.18447518119482/-24.244381352183424/-14.331425697423612/-63.20720356916616/-65.17753615257942/7.818015799246012/90.45002186087851/-4.35082274556548/-60.11259085400638/57.82899191124591/-9.721626966441008/-6.36068460150905/-59.72723373550468/-51.72241708124601/-77.77389416457243/-53.71111973832319/4.566198427386865/13.722787501423795/39.42476285958546/-24.48570711519558/76.06707184650307/-51.875503534349555/35.5035492041477/25.996360836056695/-4.025702215562617/-12.015288153734687/-96.5762612729095/-53.66552984052828/66.91787172652607/-88.64114697923091/-11.885650833157754/-49.31418306316535/8.915349238614994/49.398539573904884/35.47875378026012/8.82045101105598/-56.37633312211003/
-95.06122269091928/14.755778021359347/25.999706365060078/57.79570361311872/51.74405600353492/96.88307582746864/-31.188047130144852/43.14009950329799/-51.62055839798689/-91.5755448229884/-30.9236220645426/87.3218088369407/-57.72575700624496/48.787104575470636/95.15185359321018/99.6301145631351/62.39751658020663/57.86846694361063/-81.53532764929477/-5.12032772427618/3.066054738224409/-48.0631299730681/22.795391120121366/30.399366064324852/-13.242706669333273/-92.536197452055/4.84171028659253/-6.497226984132666/-39.599080753021184/65.78998682612115/96.80065340991618/70.6231013575748/27.474678154312898/-44.07862144517982/-94.80980677004638/94.33452063156088/-52.66866852528549/88.4152774977654/-95.14330349967209/-39.22915613736142/-56.464615205495775/60.23084712879955/53.091403285427816/-62.50832936612787/-45.41031573478649/28.582349794704243/-3.9944839834208636/-59.364956605563556/33.28352725265731/61.2475005469/27.79018427957773/50.23481548331051/54.99566582030903/51.447378352248734/33.21411012904974/-46.13000188161487/30.636852864917557/-2.671540052199532/94.6881544534057/61.35228238883715/-63.481566062440955/89.24129092826124/77.45286674170416/-83.05273351838846/71.28489778215427/22.424477119094917/-80.07864292412019/50.663632770666396/-70.8501832511275/58.3666973437129/-49.063411095220786/-43.56613132194806/39.02633879991126/-4.966502924987765/-68.32131877410457/
62.54908417901564/-39.25519764168002/-25.690293731561/77.18434504030793/-31.500562120417186/52.40167913931947/-45.57766444189144/50.91722182238166/62.411009313014034/-73.01442543804562/-94.22702458257086/45.55439389898751/-95.44133599544722/-98.22233717499054/-49.47736141113541/-35.86912610292569/64.97386720459735/10.625325755434531/-40.563816484260016/-2.0894727008410996/36.95523048899639/97.03956867207515/-56.09257097713882/-39.17160573534104/13.328710780786508/-64.8319091987677/-63.2498093787865/-14.924078876017674/-91.40649214425474/36.0476697496498/-57.74553464600596/8.37720323306354/37.62861543836448/-11.859099983558337/-45.82885182122205/90.73091064326513/-79.57575522014729/54.014088309300234/-10.29735231205602/-13.130880724531252/-27.658795863212276/99.114427997745/-31.759188015530327/-29.589194031999313/-39.309478064336844/-36.0436426222261/75.50778106098178/56.66437232250561/60.96458831137255/-92.37154120370367/-3.0807446420404716/-96.73989143022155/-70.15980408710278/-51.61617487501018/78.40386397309885/-18.729954617158867/27.11288968177965/6.17837843174793/78.57632957903797/-95.80072999490214/65.01111487836181/-87.62672867866372/-86.92378619934105/78.20924991748612/-59.12230048925933/-6.581075638902959/60.048025673474825/94.16034930639759/17.995322839842657/58.18992414923039/95.15265507209094/-79.4627214466586/-40.6283998450857/22.741529551448508/-44.83597351082081/
-23.952279389354132/90.58852971844036/91.6101140626682/-8.880978822943348/-38.339008612515116/70.3601278145577/-18.61861502587385/65.15273576841025/-85.91982592374153/81.23107451672033/-79.89813528157086/69.56523274551685/-93.8823548049552/17.8883206954106/85.21058648143486/-97.67003264128027/-35.82941598906852/46.846645377892685/-46.980370639542926/-79.83181908461208/98.96948288692258/38.80817039471668/-75.62645498219756/8.477579778260889/52.99942318616257/-66.21498190393703/-36.03055861135649/56.817680215327925/56.47024335637843/89.11319076023716/44.920926288823495/9.318309313602228/-46.56159098024306/81.77501577800933/-74.4992722733295/-28.70826730760973/-89.34003282472776/88.98636689988481/1.598404638178593/96.49304067208126/-46.019551156617624/54.7940272124485/76.28102838816449/-46.112621558104316/-9.455793875091771/-34.53226713649558/66.94640933910011/-21.55322418258301/-30.167777909466025/-97.23980424983681/-69.09013361452965/47.41333691635862/12.513986690302119/-78.35216081568865/31.867203184654358/-8.370458499267514/93.32558897371482/7.953704167804787/-7.471933485406424/-49.04927539836885/2.662753221992915/11.293336449772468/-17.184544807765946/-86.5815292162675/31.304105371664377/-79.92674907253432/-21.621323736463864/-60.21188546813869/-76.34349172611704/-52.189068380906775/-9.23137802544312/68.16734824001912/-72.8591203109593/33.8340494275204/18.475836551406147/
-82.06290342844099/28.813457777615298/-73.54399862837701/97.13335174662802/-32.21015629952228/-84.95595306096028/13.013587217860945/-62.46217739924755/-30.365266423531196/16.049350249765666/88.6920461876534/31.744191248292054/-21.717313024186893/4.3060466375257676/-85.14861710229019/-19.659553811688752/26.239029148175177/-95.65519869891939/-92.39268138024663/-51.88918597781979/-46.40499306794767/-58.84695318561768/18.708991080181406/-9.35283078328149/-85.07626794131812/5.39083883763918/23.29477518344443/-88.92997798552776/28.250160367783394/-54.149303739691646/12.896524434213717/-96.12791740052755/-94.42129816163191/13.068931910963073/-92.89828934266502/-78.00118804603137/10.126209993953466/72.72245641768606/43.571917856067074/63.632104872047904/-77.67790347143082/83.42171029474633/-16.34475938720645/-83.25529665740407/64.80137845511234/-9.263187247081035/-20.380791748639922/-77.65547975122362/36.03062050323052/27.770710760919727/89.56991496735805/21.42962100295756/32.870648123736686/32.31956784503413/97.41205646995553/-63.973776050561604/-95.7059081292343/-8.362721843433548/-2.2562747604913085/1.283527525935952/-28.36014404173652/8.047472814580004/39.368774443853994/-86.54913544936016/75.20058673207706/42.12300046777145/-13.851281736456002/87.66414177732634/-37.396557274345184/-65.12053063692882/-49.794881656921895/-70.17984567162902/-78.64164128889067/-63.59416869610488/80.02252225555512/
18.418898573373028/76.11215372505848/75.58179457666341/-55.20892943342963/-34.894431360741734/20.560887891441837/-5.99181190872909/46.36695179563793/-23.254530707089586/34.636932269773126/-62.99686715254107/-88.48210924540282/77.21672169818535/49.50120542122579/45.49329712899046/69.66004977140256/-36.29295229018761/-33.96473716905288/-75.14381223446867/-94.91835477136377/-29.84733486823312/-93.05822211548535/80.24597097776353/87.68771049617811/-10.441298558057795/88.22618572871025/2.661773398450819/32.58952931791134/67.29230874850066/32.746236282093264/65.99415042927771/16.40121373476549/-80.95903501189974/16.680268586373785/-47.48818281709091/-13.10484527435139/49.98028590100432/-60.82084823653293/62.72738609623195/-57.29313399579936/55.797009021833276/36.130766864210955/85.30742003882429/31.06911490410181/71.56447927243866/20.880138482768572/3.6685724989594917/14.09402374808488/1.069572344414027/-72.08778154468223/98.12830185553173/87.91104976525293/-92.95858825664946/-40.08148596755097/-34.04488882106969/4.007770747866218/-28.166063968440326/-5.6672521265655575/26.389794351718862/38.40945266077827/-51.53413430746616/92.33479037693169/3.6858529679516465/-18.127566527454647/13.523184290726135/-28.513718198141163/88.44372286975454/-16.944503907517742/6.280856411986477/-47.42479959187964/65.98997061138286/-33.3277291948167/-7.498011649821251/-28.089014193996206/70.27937039850994/
69.91710567574415/-73.27570830287638/62.22558221877213/-27.22593729964919/92.99548757501387/-96.55480783065171/48.50012844907798/-52.01919868967187/-56.620460554329235/85.46853716964068/79.45080088365327/70.80374292929483/68.4479306852792/76.77742288062646/21.07163343960967/95.59675747774904/-82.54128456045513/67.6491463784964/75.54599259158462/42.77593665767273/-48.65736038266626/-78.67000567870213/57.00258714505458/76.07941170622738/27.59354911561134/94.43897672652562/-44.99411308578223/-7.961826935172311/-72.42847781571618/87.37133103611083/-52.665087073625074/62.94825522344331/-35.17646092855824/6.324014343145407/85.51842499942225/-24.38893641559075/15.565409271094666/-14.832805479771508/69.75852582143074/-9.664731439122804/-53.74213290773176/63.23704997450932/54.28896076756405/8.170280239321983/78.24875198385149/44.226940573179604/79.87813283847046/-20.932256534669506/25.742243541946834/71.70555434354813/-82.89872369039904/9.644261816498158/-29.104801446170896/-51.60795666004978/22.170005798607576/36.44491858710995/-1.370246303872392/-0.8300319330587058/-43.4783386876284/19.08386762515248/-96.20972879431093/-68.07680909424217/2.034944142633961/77.36474144826067/-95.4380326772687/85.62861898089048/15.652295160584202/47.46026787257614/-51.39254962908291/71.74212096542391/10.353654803276797/-35.5430492699968/-17.833455242432834/-87.23442714017686/-76.15978418644669/
-7.952681286665737/67.40387900523831/-39.01546429344318/-58.04913062373771/-85.12122798874864/-20.422390769227476/-59.282362169522386/-19.251884403693893/85.0446230890735/93.14195713822048/-0.9797251417255666/99.37433181397716/71.42946421073299/-25.314906640064947/72.63679717305968/-84.80684587420899/-0.9023807078812212/-59.35696207631314/-16.902981010547236/-76.60493520805771/85.63994876982949/-90.98062424082232/57.20425057878623/-14.839862709712676/-17.62915974446247/-23.1204763686453/-63.23618623306129/-58.364998221710174/10.493805022256069/89.17741418995101/-10.74756160671322/-64.60475494783233/45.83066315110881/-70.48841076040146/-39.76942152076324/-23.271644296444777/50.43583249526009/-40.303402674502344/18.65116484018445/-21.01343092473917/75.39380703681653/-37.42520816338104/-62.18004936913144/-94.57710678263808/-33.67548425747631/-98.71735476562856/27.614160481657052/19.337724903353788/-8.402237465262388/-1.7752378025219997/-12.33237753766528/-89.97253394219942/-17.01548354247406/58.297749362537274/86.58229974807995/-21.059225640893686/-70.55054252545636/13.445363404151124/-11.172510091560795/13.611883583462102/97.01557466115/49.41519718281563/-51.16027114306838/-48.645269659503064/61.108430400338165/90.62638323595519/-29.06217203556605/-59.634425148526326/-67.48602201503797/65.34677510921009/94.01915720596796/-57.20414564789928/-65.93933760591202/50.91717350970845/1.6047578384482222/
-7.478868257922187/-57.6371398554588/-92.45082452662803/80.65253924863887/19.74602937912968/47.43943597091797/-50.737617926863535/56.65923029047312/85.24906379393047/2.7476649481055375/-28.184374835181345/17.923452090817577/-71.0145353648639/39.14939981173433/-39.97391814759721/8.443806927642484/-69.07000814877534/98.55286557145996/30.659070510636155/16.777346642984938/-93.54405226391565/-93.54992751212099/32.11051567296869/-82.71449889101577/14.21053817112599/47.29635740089691/-81.60694596010407/-69.45401498248118/41.360914242736754/-67.34484979220521/-57.52425513661663/61.31084549044198/49.24914158274282/59.25766930937314/72.81666390211672/-54.757723722097815/11.908593337426026/42.60369229797925/26.966377147841072/-10.240452298879333/60.55808961878785/-18.543744794599903/-62.59033374697343/29.681771075435762/59.104468284721634/-40.44041925935436/-82.64827408789976/-65.04707944693375/78.84797683964459/-76.86383281783624/77.94421478800149/-94.41292652613174/-85.00069998874993/-13.804524998135449/63.485589759645535/-31.926687325034294/93.28083209716345/10.413311011551386/-82.58076567460944/47.831411126020754/51.79896288498841/82.3174215441415/69.49186586188964/-66.08912054596217/-48.46175236246113/67.74153613676813/43.22388305091695/74.9776116720054/68.24234847987262/-38.01350130037093/-77.11766049874498/49.73383822011493/-50.88935896811682/73.85384882507225/90.4362216178032/
-59.73126602630445/79.65360279731678/-17.306354132884067/45.51286182081722/-96.56145989439531/99.21397836350027/89.8349544407128/55.16339685626184/-16.77336665251407/28.07490057642076/49.24398767353375/-54.71591318400431/36.135572550790386/-75.2598045412804/6.981401108320483/-58.170405053129095/-47.985342744064184/78.88606537782945/5.006866138117346/97.49317180695297/-55.671863028692584/63.647566614138356/-87.89442605979711/98.31797495392695/-43.27923298838869/-79.68277433802298/33.18786018752078/-65.25744568733961/-13.161041229378085/29.197235255391718/-82.06021025394591/42.87287780643027/-36.28267781314527/32.260817036794464/40.7790010896764/74.31210376704564/-68.35799449321209/-83.55777994470853/-43.70326605205186/36.668511191982645/91.25376218803623/40.789131326427/47.843509348298824/-38.09904081637507/-72.24477877752318/96.37508263424627/81.64249408947506/-94.04956623654202/16.43846490138334/-75.2163056761662/54.7911796694348/-39.35482909501575/-62.649466623953856/-10.859434099543535/82.73844805316654/67.6559899498948/53.76600047766621/91.08269225032544/-89.69916658072377/-35.6824813617264/-86.7625538191143/57.719399583609146/50.0082390233278/-37.5799648372523/-84.65394132728206/-15.447257804042835/-47.45409889035581/63.61571182992975/56.876338210009294/13.489556687591715/-3.713891280531982/-51.12783919652413/12.990257380254988/-50.50880472860542/46.37953495885168/
44.445170237205076/-57.92210420769675/75.07121553047904/78.602825407794/-36.86835289510344/12.313165908273788/-91.23471288332054/89.13543774399076/-52.89724682762444/-60.45528487921879/-28.138376819538365/18.665461824682723/97.40645901052599/-0.9963223802018035/77.09433492832522/-92.29936933146614/-34.732440718717044/27.411562713785088/33.666193932123235/-30.31274793098416/-98.39752710879914/67.42308486076391/-25.11873266203655/-80.48350601720969/13.70512509894941/-77.0596832813311/-42.16795987814774/-72.77616822887532/61.84919714913795/-8.313945129192703/58.999687794086924/-19.835760993884733/-56.40872909621075/-79.47399729701684/95.29015716808627/31.672044401628767/-40.151728633726336/89.38072995964237/-63.05718708559262/90.19112591690214/34.361801413750726/71.17009990465695/-53.0874042642594/-39.91240432382583/66.95096085344065/38.08431306745089/-19.25959549601363/83.83363811331981/40.994338158119035/-11.422627856229667/11.59082055877893/54.9778476978324/-23.129105995679524/54.830229371633976/7.050085880489988/72.29389025792332/-74.3714597578551/17.032511126123524/-22.5585259186649/87.7258932321339/-69.06169151543841/98.68327125195037/-60.17083134769416/64.22551508176952/52.43095308532696/-53.787223694262096/97.54586217051809/4.302289673348241/-60.197926968488936/6.578842608363615/21.993340357738106/36.085250926869804/74.61072247900319/-91.90705861176353/41.629387511889604/
50.92059756733349/55.485674899027345/-77.4173482709054/-7.531605754684392/-24.993478703787986/-7.50753430185631/-58.90120428276748/-34.91285487726586/-72.70694890449727/-2.2965021626492472/30.72705065958857/95.04127262727405/66.85123584076328/-88.44752110152933/-43.33461007373138/-13.238015429734702/65.1425485985975/-11.656435748777923/51.58030321466717/35.41669300309874/52.0960489183897/79.32461574716655/93.3563351931949/-83.11874517999607/-20.3727526685515/98.02308281750328/12.704960213065661/52.885588152053316/22.20935730816936/30.082029929340337/93.70041253475449/-73.44150989212694/91.33401758263935/58.62295583398088/53.16172987486985/-76.98841978225046/-20.824740196011177/-83.79897143833766/-11.098331142069043/-99.7337248870139/66.49698223572426/-54.29245265252904/72.2149161628086/-42.25816229714363/-69.17924717968067/-44.886671006882686/26.57933518197872/62.686588057808876/-26.902583722574363/-15.264015947920356/82.39583535965855/-80.65158232216987/-55.39761973628568/-29.247065268152326/26.693760138969694/-78.65521896348218/0.5012218986493622/-15.028818772738248/-22.919625440200406/14.606494275828723/32.50861329304098/58.40389168559861/0.8146479731772729/16.433572194156525/-59.709715013818034/-45.007123862656414/72.73692802359204/-14.384381008941617/-10.265781544877811/51.8551687669424/-80.11218350112806/19.233133061491372/75.94388543754079/-96.27907476285384/36.0010494162004/
-36.329712807153804/-40.217177236423595/-78.23107147885722/-34.34326109512338/-29.466266414980964/-20.973492670024257/80.85510141177522/55.73296200221861/2.5861158151117394/-51.34603151979711/84.16840947609421/50.89512509859048/-99.53302697726943/-40.46181289657671/-39.36235091467006/-29.78573369216231/57.88778295389278/-39.229123402487986/47.95169928324259/43.60680498771353/-78.84798098805055/-31.91622589938197/-77.1551829646799/-90.35995456355992/28.26506562503721/79.30521327186477/80.33764568089609/-19.65089468261216/-66.43699632074623/-2.4827717868835464/34.913702743465024/64.06261069181315/-74.29679758936186/63.55503797268571/19.150120273839093/3.8360524964445233/-59.97610967967633/81.71731258516178/-10.88947469834794/36.94319945357515/90.69378760622209/86.03224398849073/10.846934314722773/9.977603461286137/3.737002733091302/39.1508523177439/98.64672179848912/94.46778302238786/18.932517474582312/81.91574009065178/3.1996319119577805/39.51113717331296/-53.248491619707174/-41.12014396997792/-93.35099344302958/70.78334555338054/15.909978826990283/33.526566276465985/71.53038385366031/99.38150267573855/-72.22190336136848/76.66873529545833/11.889682350445497/-60.68924843777577/-54.19822479429668/-37.518740552322626/-92.58769268984256/-50.9741511448776/91.25609413681977/-61.15214228493275/-34.816503550628724/-89.70942048644118/-8.935817621382782/52.179690258224355/48.73937350984187/
36.71949458056227/-70.92073112947853/1.589729739891979/-59.64281689545887/-35.28189992902746/-10.858328366650397/-26.716391988793205/80.07221225960436/21.139056915293224/46.38658148774053/63.253971989421984/-66.30190888248478/-15.176356102098666/-37.307538710835786/-65.15783002685716/82.16605736102147/-36.70083687113881/72.82412500186368/-22.542537845783755/95.78799787081098/91.25467020898301/-90.26160829934553/33.72069645585714/59.58702705458461/-75.98110881107125/-89.31549016421303/-55.474234983919565/49.62845333428149/47.11570496531118/-29.854615990623557/-75.01111815952892/-74.67690767837476/-47.9257042466811/-38.67007199624546/-71.01781257884106/98.96388506034302/39.022455442775424/-65.15931297973361/85.92474908743642/71.2958839628551/98.19318669309672/21.305172705847397/0.7306894979987959/80.70870188623499/-4.673656917377087/-85.82678432759975/-3.7094384841943793/3.679630188414663/-59.951540947234335/-10.45315434836462/47.588866276308494/65.38463480655437/51.66568833773772/31.823195911743397/7.536954063706318/-28.06649770178049/-46.59381530825386/-22.904999924276154/-43.17269598584097/-40.52539213145596/23.999805815050564/60.66737026161593/-76.40842619086507/-29.546445610747085/-85.4152190955096/60.71348305414611/13.37152389923358/-86.40065075882933/-0.7177461416118831/-32.993965967181936/-34.11162575613599/-58.24945192036037/-30.618562048805103/-28.174788326711123/-87.67724366288753/
